34 64
1 0.1290746 -0.1402035 0.12501767 0.112351224 0.01187347 -0.14773196 0.09264056 0.14767343 -0.27620485 0.022983894 0.18842937 -0.15298422 -0.061020512 0.21840705 -0.06921062 0.17707346 -0.01974925 0.0077082426 -0.11443708 0.12504487 0.31202146 0.07715558 0.38097173 -0.04159092 0.11796141 0.13456374 -0.28658736 -0.12827721 -0.35111034 -0.21024644 -0.030826448 -0.0010434504 -0.15002607 -0.28055963 0.0727398 0.12548105 0.23775902 0.11965565 0.16724998 -0.006071496 -0.04499935 0.20928758 -0.13361576 -0.28464878 -0.08313245 -0.048467673 0.0015834651 0.036774084 -0.0066510565 0.23039584 -0.058282577 0.17136726 0.02774752 0.1415262 0.31221792 0.2035611 0.19793099 -0.16571295 -0.06475301 0.1094014 0.14409253 -0.173943 -0.11309606 0.10362023
34 -0.13134645 0.18503185 0.17343497 0.110930115 -0.108442634 -0.19258323 0.09518821 0.05338343 -0.038653463 -0.1779286 0.100562155 0.09100223 0.30665448 -0.12604494 0.07786329 -0.07123717 -0.20193571 0.061525486 0.15512994 0.09754896 -0.056160886 0.021496555 0.32986248 -0.18431903 0.07462557 0.1624272 -0.08782012 0.05512748 0.26932567 -0.01866451 -0.17533126 0.18993916 -0.39980736 -0.32959205 0.16343755 0.25606984 -0.04009321 0.42752275 0.22322679 0.015132205 0.3567194 0.041450698 -0.116991766 -0.21370496 0.1286032 0.08870832 -0.00045228613 -0.30202398 -0.12863706 0.18995784 0.1346141 0.15551256 0.1438992 0.18803942 0.19252683 0.16849168 0.14203614 -0.009555654 0.03756849 -0.22295915 -0.0417307 -0.14756896 -0.099668875 0.023863405
33 -0.09562533 0.12806706 0.18416615 0.040495194 -0.022578534 -0.20571418 0.08169753 0.011964772 -0.051415104 -0.14402702 0.052425276 0.14178838 0.25876594 -0.15944402 0.047676023 -0.02554319 -0.20933852 0.075039186 0.20369394 0.08830031 0.013719986 0.01020292 0.34641153 -0.20048043 0.117269084 0.15935093 -0.08021503 0.07334137 0.34359312 0.03174592 -0.14830682 0.20794386 -0.3758347 -0.27461004 0.14500044 0.20074207 -0.023232857 0.44955584 0.28917748 -0.028475577 0.38583323 0.03651247 -0.061140534 -0.23469089 0.1376404 0.09504256 0.02294767 -0.36562535 -0.1495161 0.11483216 0.15729679 0.079398476 0.10947469 0.18317619 0.19022237 0.11980583 0.08649497 -0.031719532 0.03981094 -0.3113022 -0.027469425 -0.20862336 -0.074683845 0.024803096
3 -0.028116342 -0.098349854 0.18360691 0.04518574 -0.03822435 -0.2247111 0.044293128 0.09621241 -0.23677103 -0.07819417 0.16863596 -0.009299779 0.1768756 -0.001916842 0.0745524 -0.05151449 -0.04075871 0.031406567 -0.04344303 0.13211831 0.10990913 0.03920666 0.335194 -0.14903143 0.18630067 0.08158868 -0.29063484 0.013578219 0.017725404 -0.10258264 -0.20115231 0.17457543 -0.1895136 -0.36210752 0.1759835 0.14023772 0.08960504 0.3179354 0.20105378 0.09024272 0.23112422 0.05878983 -0.1435591 -0.18916588 0.078246534 0.10184891 0.12094984 -0.11646448 -0.052049775 0.26587522 -0.008998255 0.2694437 0.043905605 0.09118507 0.17348808 0.22780308 0.120351814 -0.037209272 0.101428375 0.041697953 0.0367378 -0.11376008 -0.15811387 0.1103605
2 0.041195273 -0.26245204 0.16658834 0.007593442 0.011849177 -0.25616723 0.09752443 0.11823442 -0.40596753 0.02767379 0.24355982 -0.06255023 0.007292143 0.08262117 0.096598305 0.04087857 0.077085815 -0.009779599 -0.16912724 0.1957081 0.26299387 0.07881921 0.36379164 -0.08935919 0.2706526 0.030643113 -0.3922094 0.00367093 -0.14264789 -0.17635448 -0.1995816 0.144244 -0.08508824 -0.35935906 0.09199497 0.10074583 0.24183908 0.23341961 0.22825773 0.117305 0.17590176 0.12505893 -0.09942097 -0.23666921 -0.019595988 0.09453622 0.17017764 -0.005253377 0.025636984 0.25755286 -0.05303481 0.2908253 0.010412035 0.04693379 0.21772094 0.28215936 0.15399459 -0.12507628 0.09929889 0.16795954 0.14581586 -0.108546965 -0.19090627 0.22327812
4 0.055366665 -0.29650378 0.22580805 0.021164795 -0.035906777 -0.26412886 0.06844616 0.1421081 -0.4014875 -0.010685697 0.26250622 -0.098226264 0.02694139 0.08250658 0.07168977 0.0015815163 0.115512684 -0.016352352 -0.2027714 0.19819732 0.24948195 0.06960534 0.38196972 -0.101063706 0.27936268 0.03103826 -0.4211243 -0.011093787 -0.19076106 -0.18295962 -0.19168939 0.18150066 -0.099688366 -0.3914073 0.13257235 0.06902409 0.24563909 0.24409576 0.21452028 0.1414891 0.14400522 0.12719102 -0.12819947 -0.2057421 0.032545768 0.06657977 0.2064216 0.040596493 0.014769244 0.3109471 -0.0939276 0.34005436 -0.03616133 0.06367569 0.19316484 0.28255025 0.15263551 -0.071736984 0.11170774 0.23666567 0.13099173 -0.08161258 -0.17235126 0.21216214
32 -0.20107193 0.27898192 0.16984676 0.19092466 -0.14722732 -0.15092789 0.053416118 0.032562736 0.12617989 -0.051355764 0.3754078 0.04124445 0.34441125 -0.12216489 -0.069117114 0.039807696 -0.15307388 0.13214357 0.10363715 0.20329037 -0.20234174 0.07754901 0.13062704 -0.041251484 -0.23137246 0.22624932 -0.14607292 -0.14050801 -0.14934944 -0.10538825 -0.14428018 -0.044497933 -0.5360656 -0.28493524 0.2157368 0.2918503 -0.008264683 0.03555364 0.19488923 -0.06385047 0.068360694 0.28304267 -0.16245063 -0.25170615 0.15000464 0.036844056 -0.20727663 -0.1751183 -0.01176307 0.17861134 0.30413443 0.11078029 0.12236729 0.07902205 0.2712396 0.19997293 0.10497998 -0.00874527 0.0013732844 -0.015703276 -0.063495524 -0.08196375 -0.04636347 0.08305039
14 0.05980237 -0.15018015 0.17435351 0.05220268 0.025136042 -0.2216689 0.048784573 0.0747252 -0.27889168 -0.04497702 0.14499885 -0.05846442 0.094408445 0.05317375 0.033177983 0.0739539 -0.063350126 0.02759249 -0.025980756 0.15590928 0.1956118 0.06945294 0.35592702 -0.06986675 0.16847594 0.10790683 -0.26152754 -0.033769764 -0.086162835 -0.10499125 -0.1091533 0.0807171 -0.20587549 -0.32800972 0.13995431 0.10871566 0.14270583 0.22004722 0.23776382 0.07611151 0.1312198 0.10008768 -0.092230834 -0.23457466 0.016071051 0.045702428 0.112031184 -0.119231716 -0.02112338 0.23359652 0.0022850074 0.19810154 0.011299156 0.119568765 0.2165296 0.22991674 0.11994193 -0.095808774 0.03936922 0.051270016 0.09056075 -0.1761356 -0.130733 0.12437891
24 -0.26936698 0.3109662 0.19459336 0.12303761 -0.18574262 -0.21320617 0.0737666 -0.00091890385 0.105933234 -0.09917683 0.3266213 0.14913052 0.41834533 -0.23295258 0.06318242 -0.07171939 -0.18190664 0.14251222 0.18106619 0.15691748 -0.27518624 0.032470424 0.16335537 -0.066974156 -0.1228038 0.17621642 -0.069933705 -0.009795521 0.17259423 -0.03242744 -0.25977096 0.06158463 -0.5582863 -0.33453038 0.19292697 0.29263285 -0.08422105 0.20890155 0.2534035 -0.048743606 0.28024307 0.22017959 -0.16511367 -0.26499966 0.22348452 0.108155936 -0.14883193 -0.2980148 -0.02703945 0.17098044 0.34107298 0.09802425 0.13530698 0.09174685 0.23788255 0.22361615 0.07110378 0.010258957 0.067888 -0.09748049 -0.09511239 -0.048427038 -0.07205511 0.08923094
9 -0.07052243 0.08994001 0.15461351 0.10530429 -0.038560484 -0.19217324 0.10512412 0.041741382 -0.109010115 -0.11645357 0.10349391 0.052362002 0.19261138 -0.041366108 0.07477246 0.02658927 -0.17101018 0.04500094 0.11724507 0.10340998 0.045516245 0.029185232 0.32113466 -0.14437073 0.106638096 0.13617529 -0.122247286 0.021971378 0.13085036 -0.05030553 -0.12649378 0.1220133 -0.31678492 -0.29538235 0.12762892 0.20302184 0.037431452 0.34689483 0.20066744 -0.006548341 0.27143416 0.09670266 -0.097213894 -0.24975891 0.06689067 0.060453188 0.016499424 -0.22145216 -0.079721466 0.1710962 0.102272905 0.104604185 0.097302705 0.1612058 0.23167832 0.17626348 0.12738156 -0.064457364 -0.012225511 -0.13667774 0.0033950745 -0.1771114 -0.10834886 0.027482104
8 0.07582896 -0.24448434 0.20421045 0.008028126 -0.0023188447 -0.25215775 0.046854258 0.106794775 -0.38204783 -0.047698926 0.17998189 -0.10178179 0.07518993 0.07675157 0.060570482 -0.026819225 0.016825322 -0.00023871117 -0.12834494 0.13726686 0.22536007 0.0613527 0.4042618 -0.094814226 0.24964447 0.059637487 -0.37604 0.0039428077 -0.10382069 -0.14320141 -0.18672949 0.19999632 -0.12880553 -0.36494604 0.14316708 0.075865485 0.21826981 0.28928226 0.20577571 0.15839362 0.1898728 0.06221335 -0.14787835 -0.20697105 0.01645948 0.07606335 0.20468484 -0.061915733 -0.016606964 0.32406816 -0.10416202 0.32103866 -0.020431845 0.09103877 0.19391128 0.28984484 0.18249096 -0.09567604 0.082693495 0.16490266 0.13741112 -0.12783794 -0.16480315 0.19059016
28 -0.21792163 0.2401028 0.1690483 0.12788035 -0.18365195 -0.18875742 0.06642744 0.044330463 0.06179209 -0.048521575 0.34843102 0.04071283 0.35883746 -0.15473236 -0.01876427 -0.048271913 -0.08960649 0.12904264 0.078113124 0.17874882 -0.23921463 0.0899064 0.1262885 -0.031064795 -0.17719561 0.18780908 -0.17969882 -0.06804405 -0.061091352 -0.10650378 -0.21049806 0.040187232 -0.519048 -0.3153606 0.17272793 0.28997913 0.031063803 0.10077962 0.18816167 -0.017640442 0.14994678 0.21474288 -0.17647162 -0.23008546 0.20023243 0.09803371 -0.16178386 -0.1785669 0.017365297 0.21462533 0.23472407 0.21638428 0.087942 0.07144568 0.23593079 0.23331599 0.12549078 0.024442833 0.05374605 0.031044716 -0.056813587 -0.01583588 -0.08720104 0.15720013
6 0.29607514 -0.17868987 0.1089589 0.18026848 0.1933331 -0.03523061 0.084414154 0.17364599 -0.23204443 0.0780762 0.112302005 -0.27118853 -0.2577547 0.39515638 -0.34828308 0.52617264 -0.12041569 -0.0053180717 -0.061604645 0.174777 0.57860136 0.09988654 0.56402045 -0.06116827 0.022853933 0.3834317 -0.26749948 -0.36422282 -0.71096617 -0.34371388 0.25786343 -0.1970549 -0.30246064 -0.23350406 0.06513809 0.22518884 0.31230173 0.041132145 0.2257323 -0.22193208 -0.2716833 0.35543212 -0.13629179 -0.42432308 -0.13932747 -0.19210327 -0.12353982 0.017764365 -0.09252465 0.1278408 -0.059174787 0.032666784 0.06316123 0.3155946 0.48265156 0.102770075 0.18301678 -0.27211875 -0.23344477 -0.07680338 0.22307672 -0.34912327 0.0049927523 0.12385583
7 0.28243417 -0.04996842 0.104746744 0.21506879 0.16935338 -0.0116785485 0.07404781 0.14545678 -0.14938757 0.05036018 0.05302059 -0.20772497 -0.15579714 0.3626746 -0.33060774 0.5039678 -0.22714286 0.041318752 0.01732115 0.12912184 0.48892552 0.07296964 0.5432505 -0.078244805 -0.02293572 0.40317664 -0.16848423 -0.37908298 -0.6055183 -0.3050552 0.27998042 -0.22708783 -0.36977288 -0.24323751 0.08798129 0.24633265 0.18917221 0.059908632 0.19620614 -0.2093093 -0.21679802 0.33489978 -0.15511015 -0.4026667 -0.15222734 -0.19704966 -0.20097879 -0.090745576 -0.11731046 0.09572119 0.033609368 -0.012881079 0.11023454 0.3345326 0.46261498 0.09477114 0.14423972 -0.24984294 -0.25789788 -0.13723171 0.19042712 -0.36954194 0.018351156 0.08544283
31 -0.07951418 0.055503443 0.16272731 0.059649117 -0.06064746 -0.21042654 0.07816348 0.058247983 -0.15380603 -0.10105422 0.11473394 0.07077394 0.21011965 -0.09933003 0.11058543 -0.024657195 -0.12061142 0.03453538 0.059288625 0.13179022 0.028745329 0.030991938 0.3123612 -0.1470728 0.1357732 0.12054194 -0.16409825 0.05072699 0.19249143 -0.047540706 -0.20053773 0.17876416 -0.2953912 -0.32576928 0.14527197 0.1972479 0.05505689 0.3670022 0.21741632 0.048018698 0.2999295 0.059747815 -0.07584442 -0.19948165 0.092930056 0.11299997 0.055507194 -0.22286828 -0.075641334 0.18285944 0.10367412 0.16571793 0.10130749 0.13607524 0.17321156 0.20304334 0.12958851 -0.023502596 0.054185517 -0.12052007 -0.0052077603 -0.14658375 -0.1132968 0.07697697
30 -0.2374244 0.34219804 0.20006368 0.122723915 -0.18396857 -0.21257131 0.08858888 -0.010705074 0.083782814 -0.1703255 0.2054808 0.14623111 0.3914919 -0.23840095 0.1077785 -0.07439194 -0.21807897 0.07552904 0.20903438 0.13440987 -0.18522884 0.036392678 0.24075563 -0.11287239 -0.041970413 0.16292462 -0.057252474 0.058077857 0.31327048 0.015024505 -0.28450137 0.14619327 -0.52407515 -0.327516 0.18511675 0.29218474 -0.09533991 0.38181344 0.29070458 -0.030296452 0.36427212 0.121246345 -0.097484395 -0.29252467 0.18113461 0.11526879 -0.105329014 -0.31774315 -0.09343067 0.11979684 0.27815196 0.097979866 0.18131961 0.14285322 0.23880309 0.2070123 0.13883448 0.022470368 0.04706693 -0.25613526 -0.1257627 -0.107493624 -0.061501216 0.019618263
25 -0.32359558 0.41110623 0.17426145 0.21545707 -0.2352712 -0.14558074 0.08571269 0.027098998 0.22423506 -0.03197381 0.5247624 0.07922646 0.45137733 -0.19984667 -0.036514845 -0.011210094 -0.1167843 0.14154398 0.09127616 0.24855468 -0.39292243 0.076695025 0.034583 -0.012446884 -0.3370649 0.20479386 -0.14637579 -0.13425577 -0.15869747 -0.11019438 -0.23021571 -0.0402839 -0.63519627 -0.33763173 0.222924 0.34999096 -0.037861228 -0.018432634 0.1786625 -0.07727162 0.06752325 0.3602705 -0.21669847 -0.29640698 0.23000431 0.063188754 -0.28253612 -0.13783006 0.033502243 0.23823087 0.39106035 0.16472375 0.13865772 0.0014208627 0.27816528 0.2542065 0.14218588 0.04798896 0.05672882 0.058863267 -0.14273965 0.02545755 -0.06964869 0.11419233
29 -0.09601501 0.0905859 0.21993805 0.10378315 -0.09778021 -0.19220924 0.060263608 0.047736704 -0.038429834 -0.100156456 0.242689 0.024390278 0.28346768 -0.080532186 0.042665057 0.0027570291 -0.093474254 0.045014553 0.05101279 0.16279027 -0.049659252 0.046991717 0.2693744 -0.09593394 0.030592952 0.11679261 -0.15486366 -0.014601447 0.031768326 -0.083572865 -0.18666944 0.08609647 -0.36446014 -0.34193298 0.16165641 0.16785812 0.018906422 0.20783126 0.20619395 0.032495968 0.21646315 0.14388153 -0.13393205 -0.24716806 0.1363389 0.0959942 0.010786419 -0.1669048 -0.039150767 0.20605424 0.12047623 0.15908323 0.029556634 0.0931909 0.20775934 0.21823828 0.09916855 -0.019446384 0.08095736 -0.024256216 -0.017265502 -0.06823396 -0.07813527 0.08687153
5 0.31608802 -0.19202833 0.11115282 0.14864217 0.16940354 -0.07380456 0.057291884 0.1573797 -0.2626078 0.047232322 0.084211975 -0.23916863 -0.19814716 0.3942129 -0.253132 0.44256118 -0.15032813 0.02494015 -0.06980687 0.14625245 0.5501794 0.086536795 0.554278 -0.052554082 0.07745248 0.31454942 -0.2689494 -0.31674793 -0.5782843 -0.2691586 0.17542705 -0.15139215 -0.21637337 -0.26175892 0.072011724 0.14520505 0.27779737 0.09213704 0.22380854 -0.12752005 -0.21025415 0.2923836 -0.13315924 -0.38910514 -0.17131743 -0.16636993 -0.081621036 -0.032817055 -0.08407279 0.15743113 -0.056126673 0.044252746 0.051397238 0.28665152 0.42521578 0.16940945 0.18574151 -0.27188683 -0.2052478 -0.030272687 0.20343576 -0.34151024 -0.051613927 0.080637276
11 0.34241793 -0.20874098 0.11126493 0.1355466 0.22883667 -0.065935194 0.041344717 0.1699892 -0.27919757 0.067295514 -0.027733257 -0.19152558 -0.21031594 0.4023751 -0.3128043 0.4715026 -0.19211334 0.042091943 -0.02914507 0.09360318 0.59408706 0.03791202 0.6072426 -0.09137847 0.11078626 0.3552753 -0.25000334 -0.34218848 -0.5531708 -0.29348493 0.26482236 -0.15485935 -0.24863818 -0.23213293 0.11640444 0.15535985 0.23548138 0.11581952 0.24700812 -0.15193261 -0.17795117 0.26694363 -0.10780909 -0.3538185 -0.20468628 -0.19432005 -0.062420122 -0.09210543 -0.13361719 0.13005204 -0.03640169 0.010620337 0.07266517 0.31731412 0.43440393 0.1430233 0.14493641 -0.28418493 -0.22255044 -0.113776356 0.24362151 -0.42235976 -0.03854154 0.09219508
26 -0.3662962 0.44986573 0.17809275 0.2287459 -0.28514543 -0.17294957 0.08639565 0.012442861 0.23174419 -0.050995562 0.52913326 0.0701252 0.5105289 -0.24725437 -0.055913705 -0.054402906 -0.09154856 0.18544427 0.13940565 0.25635377 -0.46240017 0.09915201 0.012331789 -0.0060926476 -0.37678516 0.20143257 -0.16740382 -0.15727739 -0.15170926 -0.11797799 -0.25819206 -0.015759874 -0.71339995 -0.34691438 0.261762 0.38506284 -0.03564368 -0.014112654 0.1898314 -0.085745126 0.10028891 0.35708198 -0.21486057 -0.26504153 0.28437835 0.09568894 -0.32683083 -0.19437174 0.03748342 0.26634657 0.39886668 0.2088701 0.15244405 0.006151108 0.30100614 0.24631944 0.1011049 0.08843972 0.07429907 0.049361303 -0.14907318 0.030607145 -0.044928 0.14385334
20 0.033825967 -0.111040354 0.1616647 0.05801349 0.0010009555 -0.19942005 0.06642956 0.094664246 -0.24471106 -0.03803303 0.16252762 -0.055806547 0.08914066 0.0476047 -0.0027362632 0.06894749 -0.027244836 0.027240701 -0.037647214 0.15184496 0.1971367 0.052238166 0.38278574 -0.07905835 0.15718687 0.1096949 -0.26734212 -0.040379927 -0.122336626 -0.12801093 -0.10424635 0.13588922 -0.21427709 -0.29347476 0.12029186 0.12286733 0.15708289 0.22397248 0.2255309 0.052933298 0.13888153 0.13424473 -0.10616356 -0.22891667 0.018667825 0.031211134 0.093323104 -0.06472244 -0.03865093 0.2262079 -0.028792467 0.19821025 0.044180363 0.11519331 0.21457595 0.23640008 0.1622167 -0.07335146 0.030463742 0.014345905 0.10322221 -0.1345652 -0.091293156 0.14697628
13 0.079086795 -0.2272101 0.19217141 0.013797297 -0.022040125 -0.26125646 0.04387061 0.13693188 -0.33240792 -0.014350658 0.24874616 -0.10377121 0.061108563 0.10472197 0.020065859 0.021330336 0.02351786 0.0339105 -0.11960472 0.16697407 0.25011805 0.056655902 0.36235303 -0.060316708 0.1926586 0.05695241 -0.38432086 -0.057656325 -0.1811472 -0.14662342 -0.1645109 0.14676733 -0.13115421 -0.3432938 0.14609621 0.0967533 0.22541305 0.2104217 0.21974964 0.10710607 0.10111703 0.1504118 -0.13456018 -0.23620178 0.006034735 0.028915683 0.1240886 -0.023437377 0.019023795 0.31361154 -0.06438718 0.29132074 -0.007729982 0.07297873 0.24154148 0.29768604 0.18142545 -0.09846376 0.070524625 0.16268606 0.13620295 -0.12637071 -0.16138953 0.16360463
22 0.08927139 -0.18746002 0.14474022 0.03978332 0.030839972 -0.17976505 0.06911901 0.13798025 -0.3191049 0.025973959 0.20640606 -0.13333727 0.0051571256 0.11756448 -0.040561784 0.10547285 0.032329883 -0.0037815555 -0.113134615 0.16100106 0.26504827 0.079967946 0.3810831 -0.071690425 0.14803098 0.13739519 -0.35992092 -0.073813446 -0.29190132 -0.18877023 -0.07834346 0.12186202 -0.18417992 -0.30069992 0.10007189 0.12897208 0.23331665 0.18006963 0.19323927 0.026644196 0.038780406 0.17424111 -0.13328421 -0.2395719 -0.02773847 0.017187443 0.08636221 0.020111246 -0.021933453 0.26566243 -0.07374253 0.23975553 0.01119666 0.10401785 0.23886268 0.24871874 0.18159525 -0.12367589 0.007833563 0.10000459 0.1494265 -0.11452788 -0.11721898 0.20655796
18 0.11283108 -0.23805787 0.15455939 0.05515873 0.058852594 -0.21647441 0.050191656 0.14178911 -0.3386653 0.04068969 0.19414057 -0.12377593 -0.00029453644 0.11589211 -0.052009434 0.10571477 0.025382461 0.03668872 -0.12099041 0.17668594 0.30075616 0.06322521 0.4167898 -0.060134318 0.17821842 0.12748782 -0.3775682 -0.099987276 -0.26745337 -0.20700549 -0.07924423 0.1082266 -0.16828589 -0.30498755 0.11566042 0.11587755 0.24902326 0.16688663 0.23213242 0.06526375 0.061432548 0.17129253 -0.12883814 -0.25461698 -0.04302525 0.003801998 0.09876599 -0.015431256 -0.023215458 0.27439874 -0.055657838 0.22777255 0.022827158 0.12306583 0.2542697 0.25959706 0.1544621 -0.15363741 0.010638397 0.13261081 0.17679533 -0.15346888 -0.12267151 0.2133091
17 0.41096687 -0.18781467 0.10625726 0.19565293 0.31500027 0.0021985446 0.06685713 0.1725543 -0.2181877 0.047116995 -0.08815763 -0.25016102 -0.29617223 0.47321448 -0.4026368 0.64613706 -0.30485672 0.015017206 0.029082896 0.07827773 0.7240546 0.08496253 0.69408894 -0.11477928 0.08328175 0.48355168 -0.15183295 -0.4151505 -0.62189037 -0.3116486 0.38075835 -0.24252698 -0.3003868 -0.23500183 0.059939027 0.22666179 0.25115076 0.1348142 0.2386967 -0.28930536 -0.22942868 0.29436412 -0.12876697 -0.43485206 -0.20869169 -0.23996831 -0.1683836 -0.14538807 -0.16017878 0.044650342 -0.036297172 -0.11237468 0.10369547 0.42647302 0.50316244 0.056885596 0.1330244 -0.36367232 -0.34474176 -0.26505148 0.25289604 -0.4818478 0.02472279 0.06430975
23 -0.17626768 0.22523336 0.13459376 0.13464512 -0.090466246 -0.18522778 0.11983143 0.022853928 -0.009605582 -0.12350605 0.15093195 0.1014233 0.31758845 -0.17306118 0.12922731 -0.023360472 -0.19912042 0.049699645 0.14680143 0.11159753 -0.09821091 0.05263685 0.24130784 -0.14548716 0.019486355 0.14707479 -0.07009022 0.059430104 0.2728633 0.0012262386 -0.23366548 0.13295978 -0.43071 -0.31600726 0.1385122 0.28093505 -0.020660665 0.38094005 0.26718655 -0.046147186 0.33672598 0.09012998 -0.06168183 -0.25233465 0.12187809 0.10193469 -0.057382345 -0.29793793 -0.07328049 0.1223991 0.23916213 0.07112426 0.16614078 0.13669252 0.23223923 0.15732498 0.14101686 -0.02650735 0.0047290176 -0.2272452 -0.08302998 -0.16135505 -0.10667109 0.008266104
10 -0.09736319 0.030658256 0.19911557 0.05600581 -0.11119511 -0.24625236 0.09488561 0.06579065 -0.18214999 -0.10364916 0.17214477 0.0537464 0.25418893 -0.12978116 0.15104496 -0.059400875 -0.08067842 0.017974865 0.040141053 0.13596871 0.0008548089 0.044772644 0.3271312 -0.11450021 0.17851491 0.073990315 -0.16349447 0.08514433 0.21682341 -0.033796214 -0.24194321 0.21210514 -0.30155683 -0.36425808 0.12708192 0.17008951 0.063722864 0.3734984 0.2321079 0.08681036 0.34456944 0.039544694 -0.09360415 -0.22807246 0.12957872 0.14738725 0.11408562 -0.18999092 -0.048608553 0.23412237 0.09122723 0.22190313 0.050973587 0.13267486 0.17164032 0.22507857 0.14716162 -0.0066336915 0.11209432 -0.05437332 0.011399733 -0.09501697 -0.111728005 0.10140336
15 -0.106875524 0.21393429 0.16769834 0.13744377 -0.051872313 -0.16582118 0.09180148 -0.010365175 0.04465994 -0.14678337 0.061891653 0.11551301 0.29904273 -0.13749963 0.06788294 0.06374293 -0.27336094 0.05865735 0.1933849 0.087779924 -0.038084824 0.05184928 0.30208135 -0.15448758 0.030485 0.20276862 9.522479e-05 0.023668723 0.27096438 -0.0052163643 -0.14864959 0.06646434 -0.4269896 -0.29713863 0.13268371 0.26157972 -0.049919628 0.3621793 0.2724136 -0.065189056 0.29889977 0.08449702 -0.07241319 -0.2690273 0.12060931 0.09031476 -0.053578816 -0.35690117 -0.123517625 0.07599778 0.23912765 0.02790703 0.13806753 0.18995716 0.21678062 0.12934016 0.099221826 -0.038266934 -0.033381715 -0.28963757 -0.078219734 -0.2030711 -0.059809826 -0.00089809403
19 -0.14204784 0.22105499 0.17580709 0.13684249 -0.08941687 -0.17699456 0.11869387 0.03094023 -0.020232055 -0.12818526 0.11857368 0.11119829 0.31090358 -0.12866451 0.12765571 -0.001701223 -0.22995557 0.06266675 0.19086555 0.10191095 -0.05473105 0.06180954 0.278248 -0.15676047 0.03441934 0.15482745 -0.050235447 0.06308852 0.2992583 -0.0003195051 -0.20493138 0.10856796 -0.421161 -0.3359178 0.1604403 0.25375202 -0.026352532 0.4062909 0.26927194 -0.017126678 0.33671978 0.069689415 -0.06736773 -0.26788896 0.12351631 0.12143634 -0.029776547 -0.30643296 -0.11615131 0.13790584 0.21876039 0.064496495 0.15177941 0.16594185 0.23734295 0.16976862 0.1459378 -0.025256546 0.005176698 -0.24387792 -0.054689176 -0.19588114 -0.10280463 -0.020989703
16 -0.16124475 0.26926866 0.14598408 0.103401825 -0.08078976 -0.17859557 0.08660329 -0.0184079 0.03595505 -0.1631168 0.027197974 0.15304124 0.34561542 -0.19427036 0.10712461 -0.0026055179 -0.29906097 0.05550609 0.2344842 0.076215334 -0.07398393 0.033373345 0.3142527 -0.17671673 0.061300807 0.183059 0.00032747182 0.069795914 0.42330688 0.049106557 -0.20863539 0.14470658 -0.46143323 -0.31244552 0.1613645 0.2831708 -0.091308765 0.4751954 0.28898135 -0.041664798 0.40563473 0.016469438 -0.054330997 -0.25225964 0.13812567 0.12876832 -0.040987104 -0.40069604 -0.15726076 0.07503019 0.22882079 0.036245536 0.18238415 0.19291513 0.19024813 0.1415864 0.11219802 0.00048361864 -0.0012852134 -0.36627892 -0.10882708 -0.20435259 -0.07473387 -0.02901455
21 -0.117376894 0.15294608 0.15414307 0.07421866 -0.055323817 -0.20974334 0.09865017 0.02283265 -0.0718063 -0.11465254 0.042668086 0.11389974 0.24926217 -0.13228033 0.13320152 0.016927095 -0.21747531 0.052469097 0.17123576 0.111000024 0.00053253025 0.038016964 0.318893 -0.17666784 0.1305009 0.15877767 -0.048691638 0.075253665 0.34888127 0.015539343 -0.18480879 0.14246151 -0.38596576 -0.3038963 0.12308834 0.24550085 -0.035545174 0.45617598 0.25534466 -0.018925544 0.3769325 0.033935595 -0.05085713 -0.24534352 0.10598053 0.10919976 0.006921622 -0.34080127 -0.12034649 0.10169974 0.17874768 0.065594964 0.15378521 0.2019488 0.20025674 0.15060757 0.10450501 -0.033861678 -0.0011733676 -0.2674166 -0.055839915 -0.20494166 -0.11050417 0.0033743284
27 -0.1403243 0.22398709 0.20090811 0.0759301 -0.10200092 -0.2260565 0.07459528 0.01909267 -0.0013772447 -0.16860117 0.06994829 0.12013654 0.351085 -0.16638842 0.13958545 -0.07359516 -0.25307328 0.0795148 0.18198164 0.07944466 -0.065970905 0.021307701 0.32274067 -0.15601274 0.0646689 0.14147297 -0.033826604 0.11722447 0.37424952 0.034889244 -0.24585254 0.16071193 -0.44165114 -0.32928285 0.14581373 0.23057128 -0.0876876 0.45568407 0.2933053 0.006063606 0.38599148 0.055129457 -0.1034383 -0.25085413 0.14414966 0.15380488 0.01856156 -0.35367274 -0.11274538 0.12491922 0.17105827 0.09706786 0.13462946 0.18468311 0.21706372 0.2025876 0.09749883 0.00982334 0.025759717 -0.25196952 -0.0735658 -0.13874061 -0.08320012 0.030278482
12 0.17953467 -0.21330449 0.12899202 0.055436105 0.07487173 -0.17395914 0.038513333 0.14395541 -0.30593425 0.025243836 0.1608514 -0.13995963 -0.045807444 0.22441575 -0.108960524 0.18374327 -0.0031837956 0.035967503 -0.10546746 0.14049697 0.35794505 0.046475105 0.41003203 -0.07355997 0.13698354 0.1187265 -0.33956194 -0.1697692 -0.35952884 -0.20103772 -0.009777475 0.012893661 -0.15425032 -0.29500487 0.122715496 0.08800579 0.21200977 0.1189208 0.21419683 0.038705394 -0.054242644 0.19597729 -0.13385509 -0.27623492 -0.07594946 -0.04361669 0.033207428 -0.014508628 -0.030370839 0.2519169 -0.0797361 0.20738767 0.015820768 0.12722845 0.3009466 0.23199335 0.14930712 -0.14377701 -0.018479973 0.12162597 0.16075066 -0.20925228 -0.11016001 0.12628746
