6 64
6 -0.0008377689 0.00036959542 0.007974131 0.014076949 -0.014535838 -0.011119704 0.010091514 0.014020034 -0.007836211 -0.005880578 0.011531569 -0.0023962455 -0.0070880945 0.0102403285 -0.0075940494 -0.0028377008 0.0044944305 0.0015496918 -0.012945343 -0.014763911 0.01142408 0.007922019 0.010558854 0.0011919729 0.009923077 -0.0053204778 -0.0014783907 0.009013279 -0.011752449 -0.006149846 -0.011736491 -0.0014528723 0.014902769 -0.011436045 -0.0036462834 -0.0030279106 0.012620451 -0.009266738 7.023165e-05 -0.0074278153 -0.015005581 0.007823763 -0.0136869885 -0.0068618394 -5.451215e-05 -0.0004631624 -0.011970516 0.015022916 0.0077841813 0.014426756 -0.012746685 0.007024305 -0.0064643347 0.0012886184 0.013278525 -0.006972238 0.007058339 -0.010604224 -0.005544782 0.014685064 -0.0024654034 0.00050236366 -0.006469309 -0.0120043075
5 -0.0023564277 0.0038593467 -0.001386801 0.008646616 -0.004286378 0.0035305321 0.008525408 0.013041386 -0.0022714937 -0.014387466 0.0068301097 0.0008939745 0.011628205 -0.0012706316 -0.004123335 -0.01367667 -0.0013383911 0.004417151 0.008439564 0.011019331 -0.008910414 0.0029049015 0.00951478 -0.0074975784 -0.004854703 0.010621304 0.0025488627 0.0002975342 0.0054276576 0.0003402959 0.015028913 0.007907442 -0.013933248 -0.011002778 0.0014081108 0.00998813 -0.013467552 0.0057276883 0.008109905 0.00897125 0.011667066 -0.009636379 0.0017268797 0.009448018 -0.0044374377 -0.0096456185 -0.0006414591 -0.0130764535 -0.008750174 0.011101236 0.005238254 0.011290406 0.010624798 0.011767035 -0.0059196227 -0.00087840774 0.00366973 -0.0070616724 0.013107439 -0.015403586 0.010569989 0.004553374 -0.007707999 0.006871746
2 -0.0027180961 0.010486542 0.015570179 -0.0068161404 -0.0009366491 -0.008899574 0.0060170377 0.0043542814 0.010767208 0.009532888 0.014904047 0.014489683 0.0123406425 -0.010920971 -0.014306135 -0.00055589946 -0.0048434446 0.01233489 0.009278859 -0.002415285 0.002361025 0.0027970388 0.012215089 -0.014859652 -0.00032101694 0.005420552 -0.0014671629 0.013096632 0.0140792 0.010213213 -0.0011120563 0.012047489 -0.013334709 0.005010959 -0.0072469166 -0.007951531 0.0056089377 0.0083910385 0.012139867 -0.00901026 0.011614436 0.010352436 -0.005796736 -0.013665152 0.008496041 0.010171488 -0.0012306985 -0.01048396 -0.01107166 -0.0039014742 0.008036173 -0.0057268445 -0.014640801 0.005979297 0.0076321666 -0.010044719 0.0018884612 -0.0032421295 3.8060127e-05 -0.015442796 0.0042062257 -0.007422035 0.0016993659 -0.0024630027
1 0.0034321337 -0.012315576 -0.004246207 0.0041611604 0.008354491 -0.003737383 -0.014858633 0.0070409374 0.00014683798 0.0048092683 -0.010643876 -0.002148656 0.011981442 0.01147972 -0.005739299 0.004129776 -0.012995139 0.009696421 -0.007246483 -0.0049433513 0.0145504065 0.0013652282 0.01170425 -0.009490811 0.008063702 0.015503601 -0.013215742 -0.008024487 -0.011039033 -0.0075987177 -0.0059047947 -0.013338794 0.012431954 -0.007568944 0.013161517 0.008223427 -0.010233338 0.0061836415 0.00854806 -0.011603663 -0.01157123 -0.003867406 -0.01347723 -0.002472103 -0.0006312571 0.0051568 0.0022527303 -0.0013771721 -0.008740188 0.002703555 -0.001402102 0.010616144 0.0062093507 0.007076605 0.0022423677 -0.0042181984 -0.00682268 -0.0016134925 0.0022461866 -0.0041343966 -0.011052027 -0.012196504 -0.0142539535 -0.009273305
4 -0.0028867128 -0.0067562037 -0.010094661 -0.005807758 0.0067012557 -0.0058429483 0.0130917225 0.0023976183 -0.011316801 0.01474038 0.011924631 0.008583341 -0.010701946 0.009098676 0.0062639946 0.008102201 0.0066502374 0.0030310121 -0.00495415 0.013052476 0.015019971 0.0059264814 -0.004432397 1.12041525e-05 0.0019049441 -0.013216728 -0.012850307 -0.00036053042 0.0019327187 -0.008974567 -0.0073840064 -0.011478606 0.013014533 0.00018896203 -0.007046289 0.00890899 0.014344755 -0.0064066746 0.012445121 0.00839896 0.009185608 0.0008013254 0.012832586 -0.010967857 -0.012879511 0.014530574 -0.00030944662 -0.003073194 0.0071937437 -0.006398372 0.0042855856 0.010844319 0.009477151 -0.011735848 0.014660943 0.007299542 0.006197567 -0.009756245 0.013218771 -0.0033589785 0.013789575 -0.008378309 -0.012702855 0.010663044
3 0.0026112385 -0.0034351703 0.014865002 0.014834149 -0.015271949 0.0039144196 0.009619832 0.0060507134 0.0031606052 0.0006726589 0.0010525491 -0.005969744 -0.011156641 -0.0032638628 0.00613109 0.013779193 0.014467422 -0.009337401 -0.014691673 0.015256839 0.0053590387 0.008072058 0.009816164 -0.0043816604 0.011441724 0.0044222996 0.0044859443 -0.003719328 -0.00488789 -0.0037033465 0.006681932 0.000118840486 -0.014975436 -0.015102413 -0.009606553 -0.00020089 0.0031209625 0.01473745 0.008725548 -0.006704213 0.0004348699 0.0077568106 0.0120286085 -0.0017878488 0.0067553446 -0.009084968 -0.0012565479 0.012656329 -0.0036876015 -0.015099149 0.009030094 -0.0061403476 -0.0019107386 0.015594559 -0.0035255477 -0.0074329134 -0.0083271675 0.010907641 -0.008920113 0.0033025984 -0.0082119685 0.009563616 0.006808292 0.0040724296
